digraph Tree {
node [shape=box] ;
0 [label="X[7] <= 12.5\ngini = 0.204\nsamples = 234\nvalue = [207, 27]"] ;
1 [label="X[7] <= 2.5\ngini = 0.132\nsamples = 211\nvalue = [196, 15]"] ;
0 -> 1 [labeldistance=2.5, labelangle=45, headlabel="True"] ;
2 [label="X[5] <= 20.5\ngini = 0.063\nsamples = 123\nvalue = [119, 4]"] ;
1 -> 2 ;
3 [label="X[10] <= 3.5\ngini = 0.021\nsamples = 93\nvalue = [92, 1]"] ;
2 -> 3 ;
4 [label="X[8] <= 2.5\ngini = 0.083\nsamples = 23\nvalue = [22, 1]"] ;
3 -> 4 ;
5 [label="gini = 0.0\nsamples = 19\nvalue = [19, 0]"] ;
4 -> 5 ;
6 [label="X[3] <= 3.5\ngini = 0.375\nsamples = 4\nvalue = [3, 1]"] ;
4 -> 6 ;
7 [label="gini = 0.0\nsamples = 1\nvalue = [0, 1]"] ;
6 -> 7 ;
8 [label="gini = 0.0\nsamples = 3\nvalue = [3, 0]"] ;
6 -> 8 ;
9 [label="gini = 0.0\nsamples = 70\nvalue = [70, 0]"] ;
3 -> 9 ;
10 [label="X[0] <= 7.5\ngini = 0.18\nsamples = 30\nvalue = [27, 3]"] ;
2 -> 10 ;
11 [label="X[14] <= 0.411\ngini = 0.5\nsamples = 2\nvalue = [1, 1]"] ;
10 -> 11 ;
12 [label="gini = 0.0\nsamples = 1\nvalue = [0, 1]"] ;
11 -> 12 ;
13 [label="gini = 0.0\nsamples = 1\nvalue = [1, 0]"] ;
11 -> 13 ;
14 [label="X[14] <= 0.288\ngini = 0.133\nsamples = 28\nvalue = [26, 2]"] ;
10 -> 14 ;
15 [label="X[3] <= 5.5\ngini = 0.298\nsamples = 11\nvalue = [9, 2]"] ;
14 -> 15 ;
16 [label="X[14] <= 0.258\ngini = 0.444\nsamples = 6\nvalue = [4, 2]"] ;
15 -> 16 ;
17 [label="X[4] <= 27.0\ngini = 0.32\nsamples = 5\nvalue = [4, 1]"] ;
16 -> 17 ;
18 [label="gini = 0.0\nsamples = 4\nvalue = [4, 0]"] ;
17 -> 18 ;
19 [label="gini = 0.0\nsamples = 1\nvalue = [0, 1]"] ;
17 -> 19 ;
20 [label="gini = 0.0\nsamples = 1\nvalue = [0, 1]"] ;
16 -> 20 ;
21 [label="gini = 0.0\nsamples = 5\nvalue = [5, 0]"] ;
15 -> 21 ;
22 [label="gini = 0.0\nsamples = 17\nvalue = [17, 0]"] ;
14 -> 22 ;
23 [label="X[10] <= 26.5\ngini = 0.219\nsamples = 88\nvalue = [77, 11]"] ;
1 -> 23 ;
24 [label="X[10] <= 6.5\ngini = 0.423\nsamples = 23\nvalue = [16, 7]"] ;
23 -> 24 ;
25 [label="gini = 0.0\nsamples = 7\nvalue = [7, 0]"] ;
24 -> 25 ;
26 [label="X[4] <= 8.0\ngini = 0.492\nsamples = 16\nvalue = [9, 7]"] ;
24 -> 26 ;
27 [label="X[1] <= 2.5\ngini = 0.444\nsamples = 6\nvalue = [2, 4]"] ;
26 -> 27 ;
28 [label="X[8] <= 3.5\ngini = 0.32\nsamples = 5\nvalue = [1, 4]"] ;
27 -> 28 ;
29 [label="gini = 0.444\nsamples = 3\nvalue = [1, 2]"] ;
28 -> 29 ;
30 [label="gini = 0.0\nsamples = 2\nvalue = [0, 2]"] ;
28 -> 30 ;
31 [label="gini = 0.0\nsamples = 1\nvalue = [1, 0]"] ;
27 -> 31 ;
32 [label="X[7] <= 3.5\ngini = 0.42\nsamples = 10\nvalue = [7, 3]"] ;
26 -> 32 ;
33 [label="gini = 0.0\nsamples = 4\nvalue = [4, 0]"] ;
32 -> 33 ;
34 [label="X[4] <= 12.0\ngini = 0.5\nsamples = 6\nvalue = [3, 3]"] ;
32 -> 34 ;
35 [label="gini = 0.0\nsamples = 2\nvalue = [0, 2]"] ;
34 -> 35 ;
36 [label="X[5] <= 134.0\ngini = 0.375\nsamples = 4\nvalue = [3, 1]"] ;
34 -> 36 ;
37 [label="gini = 0.0\nsamples = 2\nvalue = [2, 0]"] ;
36 -> 37 ;
38 [label="X[14] <= 0.368\ngini = 0.5\nsamples = 2\nvalue = [1, 1]"] ;
36 -> 38 ;
39 [label="gini = 0.0\nsamples = 1\nvalue = [0, 1]"] ;
38 -> 39 ;
40 [label="gini = 0.0\nsamples = 1\nvalue = [1, 0]"] ;
38 -> 40 ;
41 [label="X[19] <= 3.167\ngini = 0.116\nsamples = 65\nvalue = [61, 4]"] ;
23 -> 41 ;
42 [label="X[14] <= 0.854\ngini = 0.091\nsamples = 63\nvalue = [60, 3]"] ;
41 -> 42 ;
43 [label="X[6] <= 10.5\ngini = 0.063\nsamples = 61\nvalue = [59, 2]"] ;
42 -> 43 ;
44 [label="X[9] <= 0.53\ngini = 0.036\nsamples = 55\nvalue = [54, 1]"] ;
43 -> 44 ;
45 [label="X[14] <= 0.365\ngini = 0.245\nsamples = 7\nvalue = [6, 1]"] ;
44 -> 45 ;
46 [label="X[0] <= 11.0\ngini = 0.5\nsamples = 2\nvalue = [1, 1]"] ;
45 -> 46 ;
47 [label="gini = 0.0\nsamples = 1\nvalue = [0, 1]"] ;
46 -> 47 ;
48 [label="gini = 0.0\nsamples = 1\nvalue = [1, 0]"] ;
46 -> 48 ;
49 [label="gini = 0.0\nsamples = 5\nvalue = [5, 0]"] ;
45 -> 49 ;
50 [label="gini = 0.0\nsamples = 48\nvalue = [48, 0]"] ;
44 -> 50 ;
51 [label="X[17] <= 10.221\ngini = 0.278\nsamples = 6\nvalue = [5, 1]"] ;
43 -> 51 ;
52 [label="gini = 0.0\nsamples = 5\nvalue = [5, 0]"] ;
51 -> 52 ;
53 [label="gini = 0.0\nsamples = 1\nvalue = [0, 1]"] ;
51 -> 53 ;
54 [label="X[17] <= 14.0\ngini = 0.5\nsamples = 2\nvalue = [1, 1]"] ;
42 -> 54 ;
55 [label="gini = 0.0\nsamples = 1\nvalue = [0, 1]"] ;
54 -> 55 ;
56 [label="gini = 0.0\nsamples = 1\nvalue = [1, 0]"] ;
54 -> 56 ;
57 [label="X[18] <= 13.0\ngini = 0.5\nsamples = 2\nvalue = [1, 1]"] ;
41 -> 57 ;
58 [label="gini = 0.0\nsamples = 1\nvalue = [0, 1]"] ;
57 -> 58 ;
59 [label="gini = 0.0\nsamples = 1\nvalue = [1, 0]"] ;
57 -> 59 ;
60 [label="X[19] <= 1.643\ngini = 0.499\nsamples = 23\nvalue = [11, 12]"] ;
0 -> 60 [labeldistance=2.5, labelangle=-45, headlabel="False"] ;
61 [label="X[0] <= 40.5\ngini = 0.457\nsamples = 17\nvalue = [6, 11]"] ;
60 -> 61 ;
62 [label="X[10] <= 601.5\ngini = 0.391\nsamples = 15\nvalue = [4, 11]"] ;
61 -> 62 ;
63 [label="X[9] <= 0.865\ngini = 0.494\nsamples = 9\nvalue = [4, 5]"] ;
62 -> 63 ;
64 [label="gini = 0.0\nsamples = 2\nvalue = [2, 0]"] ;
63 -> 64 ;
65 [label="X[5] <= 156.5\ngini = 0.408\nsamples = 7\nvalue = [2, 5]"] ;
63 -> 65 ;
66 [label="gini = 0.0\nsamples = 5\nvalue = [0, 5]"] ;
65 -> 66 ;
67 [label="gini = 0.0\nsamples = 2\nvalue = [2, 0]"] ;
65 -> 67 ;
68 [label="gini = 0.0\nsamples = 6\nvalue = [0, 6]"] ;
62 -> 68 ;
69 [label="gini = 0.0\nsamples = 2\nvalue = [2, 0]"] ;
61 -> 69 ;
70 [label="X[19] <= 4.066\ngini = 0.278\nsamples = 6\nvalue = [5, 1]"] ;
60 -> 70 ;
71 [label="gini = 0.0\nsamples = 5\nvalue = [5, 0]"] ;
70 -> 71 ;
72 [label="gini = 0.0\nsamples = 1\nvalue = [0, 1]"] ;
70 -> 72 ;
}
